network "unnamedBN" {
// written by aGrUM 1.7.1
}

variable X06 {
   type discrete[2] {0, 1};
}

variable X12 {
   type discrete[2] {0, 1};
}

variable X09 {
   type discrete[2] {0, 1};
}

variable X08 {
   type discrete[2] {0, 1};
}

variable X07 {
   type discrete[2] {0, 1};
}

variable X03 {
   type discrete[2] {0, 1};
}

variable X05 {
   type discrete[2] {0, 1};
}

variable X11 {
   type discrete[2] {0, 1};
}

variable X02 {
   type discrete[2] {0, 1};
}

variable X01 {
   type discrete[2] {0, 1};
}

variable X00 {
   type discrete[2] {0, 1};
}

variable X10 {
   type discrete[2] {0, 1};
}

variable X04 {
   type discrete[2] {0, 1};
}

probability (X06) {
   default 0.859803 0.140197;
}
probability (X12 | X04, X07, X11, X03) {
   (0, 0, 0, 0) 0.693285 0.306715;
   (1, 0, 0, 0) 0.426876 0.573124;
   (0, 1, 0, 0) 0.443987 0.556013;
   (1, 1, 0, 0) 0.578698 0.421302;
   (0, 0, 1, 0) 0.598923 0.401077;
   (1, 0, 1, 0) 0.280696 0.719304;
   (0, 1, 1, 0) 0.281815 0.718185;
   (1, 1, 1, 0) 0.758741 0.241259;
   (0, 0, 0, 1) 0.467233 0.532767;
   (1, 0, 0, 1) 0.495798 0.504202;
   (0, 1, 0, 1) 0.132753 0.867247;
   (1, 1, 0, 1) 0.633837 0.366163;
   (0, 0, 1, 1) 0.510857 0.489143;
   (1, 0, 1, 1) 0.691215 0.308785;
   (0, 1, 1, 1) 0.562859 0.437141;
   (1, 1, 1, 1) 0.602004 0.397996;
}
probability (X09 | X08) {
   (0) 0.696822 0.303178;
   (1) 0.556692 0.443308;
}
probability (X08 | X06) {
   (0) 0.69262 0.30738;
   (1) 0.528195 0.471805;
}
probability (X07 | X06, X04) {
   (0, 0) 0.189701 0.810299;
   (1, 0) 0.0458223 0.954178;
   (0, 1) 0.409256 0.590744;
   (1, 1) 0.191572 0.808428;
}
probability (X03 | X02) {
   (0) 0.154998 0.845002;
   (1) 0.506582 0.493418;
}
probability (X05) {
   default 0.913422 0.0865776;
}
probability (X11 | X08, X05, X06) {
   (0, 0, 0) 0.548993 0.451007;
   (1, 0, 0) 0.408091 0.591909;
   (0, 1, 0) 0.506281 0.493719;
   (1, 1, 0) 0.440813 0.559187;
   (0, 0, 1) 0.387127 0.612873;
   (1, 0, 1) 0.0766 0.9234;
   (0, 1, 1) 0.545181 0.454819;
   (1, 1, 1) 0.435736 0.564264;
}
probability (X02 | X01) {
   (0) 0.0350313 0.964969;
   (1) 0.398248 0.601752;
}
probability (X01) {
   default 0.750725 0.249275;
}
probability (X00) {
   default 0.418721 0.581279;
}
probability (X10 | X01, X04, X00, X09) {
   (0, 0, 0, 0) 0.125656 0.874344;
   (1, 0, 0, 0) 0.702232 0.297768;
   (0, 1, 0, 0) 0.550359 0.449641;
   (1, 1, 0, 0) 0.531734 0.468266;
   (0, 0, 1, 0) 0.774108 0.225892;
   (1, 0, 1, 0) 0.508337 0.491663;
   (0, 1, 1, 0) 0.597676 0.402324;
   (1, 1, 1, 0) 0.534867 0.465133;
   (0, 0, 0, 1) 0.515075 0.484925;
   (1, 0, 0, 1) 0.324857 0.675143;
   (0, 1, 0, 1) 0.787307 0.212693;
   (1, 1, 0, 1) 0.796466 0.203534;
   (0, 0, 1, 1) 0.871923 0.128077;
   (1, 0, 1, 1) 0.0393687 0.960631;
   (0, 1, 1, 1) 0.65742 0.34258;
   (1, 1, 1, 1) 0.749627 0.250373;
}
probability (X04 | X01, X02) {
   (0, 0) 0.780613 0.219387;
   (1, 0) 0.532817 0.467183;
   (0, 1) 0.561118 0.438882;
   (1, 1) 0.124508 0.875492;
}

