network "unnamedBN" {
// written by aGrUM 1.7.1
}

variable X04 {
   type discrete[3] {0, 1, 2};
}

variable X06 {
   type discrete[3] {0, 1, 2};
}

variable X07 {
   type discrete[3] {0, 1, 2};
}

variable X05 {
   type discrete[3] {0, 1, 2};
}

variable X10 {
   type discrete[3] {0, 1, 2};
}

variable X01 {
   type discrete[2] {0, 1};
}

variable X08 {
   type discrete[3] {0, 1, 2};
}

variable X03 {
   type discrete[3] {0, 1, 2};
}

variable X00 {
   type discrete[3] {0, 1, 2};
}

variable X09 {
   type discrete[3] {0, 1, 2};
}

variable X02 {
   type discrete[2] {0, 1};
}

probability (X04 | X01, X03, X00, X02) {
   (0, 0, 0, 0) 0.234788 0.469733 0.295479;
   (1, 0, 0, 0) 0.537678 0.401544 0.0607782;
   (0, 1, 0, 0) 0.551993 0.061878 0.386129;
   (1, 1, 0, 0) 0.355774 0.434815 0.209411;
   (0, 2, 0, 0) 0.298423 0.527275 0.174301;
   (1, 2, 0, 0) 0.289888 0.539158 0.170954;
   (0, 0, 1, 0) 0.29994 0.50481 0.19525;
   (1, 0, 1, 0) 0.267428 0.393688 0.338884;
   (0, 1, 1, 0) 0.385597 0.342907 0.271496;
   (1, 1, 1, 0) 0.205793 0.465203 0.329004;
   (0, 2, 1, 0) 0.653301 0.317229 0.0294706;
   (1, 2, 1, 0) 0.292111 0.380623 0.327266;
   (0, 0, 2, 0) 0.459232 0.0659743 0.474794;
   (1, 0, 2, 0) 0.556615 0.00217968 0.441206;
   (0, 1, 2, 0) 0.110826 0.278913 0.610261;
   (1, 1, 2, 0) 0.500592 0.330187 0.169221;
   (0, 2, 2, 0) 0.455184 0.455569 0.0892469;
   (1, 2, 2, 0) 0.367979 0.258462 0.373559;
   (0, 0, 0, 1) 0.73628 0.248755 0.0149649;
   (1, 0, 0, 1) 0.280753 0.374163 0.345084;
   (0, 1, 0, 1) 0.372749 0.572398 0.054853;
   (1, 1, 0, 1) 0.274219 0.348691 0.37709;
   (0, 2, 0, 1) 0.617518 0.277455 0.105028;
   (1, 2, 0, 1) 0.472306 0.0731445 0.45455;
   (0, 0, 1, 1) 0.307873 0.531585 0.160543;
   (1, 0, 1, 1) 0.608415 0.168151 0.223434;
   (0, 1, 1, 1) 0.178768 0.419426 0.401806;
   (1, 1, 1, 1) 0.360958 0.379606 0.259436;
   (0, 2, 1, 1) 0.20841 0.42552 0.366069;
   (1, 2, 1, 1) 0.134765 0.501152 0.364082;
   (0, 0, 2, 1) 0.654522 0.287708 0.0577699;
   (1, 0, 2, 1) 0.0605665 0.661401 0.278032;
   (0, 1, 2, 1) 0.00517892 0.92599 0.0688306;
   (1, 1, 2, 1) 0.136184 0.345392 0.518424;
   (0, 2, 2, 1) 0.153742 0.610981 0.235278;
   (1, 2, 2, 1) 0.416115 0.404574 0.179311;
}
probability (X06) {
   default 0.322644 0.0802761 0.59708;
}
probability (X07 | X06, X05) {
   (0, 0) 0.434298 0.241109 0.324593;
   (1, 0) 0.390754 0.558598 0.0506475;
   (2, 0) 0.100645 0.207046 0.692309;
   (0, 1) 0.225942 0.338433 0.435626;
   (1, 1) 0.440548 0.390932 0.16852;
   (2, 1) 0.458617 0.312613 0.228769;
   (0, 2) 0.3853 0.109115 0.505586;
   (1, 2) 0.399137 0.183162 0.417701;
   (2, 2) 0.162292 0.540662 0.297046;
}
probability (X05 | X01) {
   (0) 0.116112 0.178014 0.705873;
   (1) 0.385198 0.377566 0.237237;
}
probability (X10 | X06, X03, X09) {
   (0, 0, 0) 0.0542982 0.394247 0.551455;
   (1, 0, 0) 0.119897 0.0254898 0.854614;
   (2, 0, 0) 0.367775 0.258878 0.373347;
   (0, 1, 0) 0.64193 0.0200071 0.338063;
   (1, 1, 0) 0.47431 0.0359874 0.489703;
   (2, 1, 0) 0.33982 0.512377 0.147802;
   (0, 2, 0) 0.359437 0.339087 0.301475;
   (1, 2, 0) 0.311481 0.463832 0.224686;
   (2, 2, 0) 0.449979 0.479462 0.0705589;
   (0, 0, 1) 0.723846 0.107276 0.168878;
   (1, 0, 1) 0.0245875 0.684141 0.291271;
   (2, 0, 1) 0.0831634 0.779691 0.137145;
   (0, 1, 1) 0.683697 0.281971 0.0343316;
   (1, 1, 1) 0.281302 0.18233 0.536368;
   (2, 1, 1) 0.215127 0.447573 0.337301;
   (0, 2, 1) 0.578199 0.344833 0.0769684;
   (1, 2, 1) 0.412839 0.485691 0.10147;
   (2, 2, 1) 0.00790438 0.381204 0.610892;
   (0, 0, 2) 0.511144 0.405322 0.0835343;
   (1, 0, 2) 0.476056 0.230407 0.293537;
   (2, 0, 2) 0.582775 0.0120757 0.405149;
   (0, 1, 2) 0.579969 0.306883 0.113147;
   (1, 1, 2) 0.398633 0.382646 0.218721;
   (2, 1, 2) 0.209725 0.38094 0.409335;
   (0, 2, 2) 0.36497 0.422726 0.212305;
   (1, 2, 2) 0.393648 0.0535217 0.55283;
   (2, 2, 2) 0.131264 0.0929928 0.775743;
}
probability (X01) {
   default 0.327806 0.672194;
}
probability (X08 | X06, X01) {
   (0, 0) 0.679377 0.280868 0.0397555;
   (1, 0) 0.467989 0.0646277 0.467383;
   (2, 0) 0.479101 0.333542 0.187357;
   (0, 1) 0.388313 0.374401 0.237286;
   (1, 1) 0.0177301 0.361547 0.620723;
   (2, 1) 0.382206 0.224387 0.393407;
}
probability (X03 | X01) {
   (0) 0.264497 0.284376 0.451128;
   (1) 0.530082 0.454023 0.0158958;
}
probability (X00) {
   default 0.395348 0.420042 0.184609;
}
probability (X09 | X04, X08) {
   (0, 0) 0.0319918 0.747931 0.220077;
   (1, 0) 0.124696 0.404533 0.470771;
   (2, 0) 0.659068 0.148089 0.192842;
   (0, 1) 0.274197 0.398916 0.326887;
   (1, 1) 0.115976 0.38921 0.494814;
   (2, 1) 0.294285 0.477103 0.228613;
   (0, 2) 0.469411 0.175151 0.355438;
   (1, 2) 0.123558 0.44991 0.426531;
   (2, 2) 0.392898 0.32028 0.286822;
}
probability (X02 | X01) {
   (0) 0.572301 0.427699;
   (1) 0.479236 0.520764;
}

