network "unnamedBN" {
// written by aGrUM 1.7.1
}

variable X11 {
   type discrete[3] {0, 1, 2};
}

variable X05 {
   type discrete[3] {0, 1, 2};
}

variable X04 {
   type discrete[2] {0, 1};
}

variable X09 {
   type discrete[2] {0, 1};
}

variable X00 {
   type discrete[2] {0, 1};
}

variable X01 {
   type discrete[3] {0, 1, 2};
}

variable X08 {
   type discrete[3] {0, 1, 2};
}

variable X07 {
   type discrete[2] {0, 1};
}

variable X02 {
   type discrete[3] {0, 1, 2};
}

variable X06 {
   type discrete[2] {0, 1};
}

variable X10 {
   type discrete[3] {0, 1, 2};
}

variable X03 {
   type discrete[2] {0, 1};
}

probability (X11 | X10) {
   (0) 0.504947 0.0314466 0.463606;
   (1) 0.36674 0.163527 0.469733;
   (2) 0.122411 0.203883 0.673707;
}
probability (X05 | X04) {
   (0) 0.223023 0.405577 0.3714;
   (1) 0.127272 0.521467 0.351261;
}
probability (X04 | X03) {
   (0) 0.182361 0.817639;
   (1) 0.889725 0.110275;
}
probability (X09 | X07, X00, X02) {
   (0, 0, 0) 0.44606 0.55394;
   (1, 0, 0) 0.496169 0.503831;
   (0, 1, 0) 0.105781 0.894219;
   (1, 1, 0) 0.168055 0.831945;
   (0, 0, 1) 0.425787 0.574213;
   (1, 0, 1) 0.496738 0.503262;
   (0, 1, 1) 0.124864 0.875136;
   (1, 1, 1) 0.463877 0.536123;
   (0, 0, 2) 0.982433 0.0175668;
   (1, 0, 2) 0.288003 0.711997;
   (0, 1, 2) 0.956148 0.0438519;
   (1, 1, 2) 0.572255 0.427745;
}
probability (X00) {
   default 0.451782 0.548218;
}
probability (X01 | X00) {
   (0) 0.29679 0.369336 0.333873;
   (1) 0.448586 0.354098 0.197316;
}
probability (X08 | X05, X07) {
   (0, 0) 0.582681 0.237791 0.179529;
   (1, 0) 0.340861 0.231273 0.427866;
   (2, 0) 0.0236702 0.759961 0.216369;
   (0, 1) 0.367071 0.226166 0.406762;
   (1, 1) 0.322917 0.238152 0.438932;
   (2, 1) 0.0610555 0.544442 0.394502;
}
probability (X07 | X06) {
   (0) 0.489785 0.510215;
   (1) 0.516241 0.483759;
}
probability (X02 | X00) {
   (0) 0.356601 0.340945 0.302453;
   (1) 0.122518 0.114312 0.76317;
}
probability (X06 | X02, X05) {
   (0, 0) 0.434094 0.565906;
   (1, 0) 0.186393 0.813607;
   (2, 0) 0.476755 0.523245;
   (0, 1) 0.724779 0.275221;
   (1, 1) 0.38129 0.61871;
   (2, 1) 0.337194 0.662806;
   (0, 2) 0.540595 0.459405;
   (1, 2) 0.132871 0.867129;
   (2, 2) 0.0818317 0.918168;
}
probability (X10 | X04, X01, X03, X09) {
   (0, 0, 0, 0) 0.187079 0.391242 0.421679;
   (1, 0, 0, 0) 0.000411826 0.653072 0.346516;
   (0, 1, 0, 0) 0.399537 0.167455 0.433008;
   (1, 1, 0, 0) 0.516534 0.0995363 0.38393;
   (0, 2, 0, 0) 0.466785 0.307143 0.226072;
   (1, 2, 0, 0) 0.229817 0.716402 0.0537813;
   (0, 0, 1, 0) 0.361877 0.280279 0.357843;
   (1, 0, 1, 0) 0.676238 0.0658772 0.257885;
   (0, 1, 1, 0) 0.637467 0.251247 0.111287;
   (1, 1, 1, 0) 0.122601 0.47123 0.406168;
   (0, 2, 1, 0) 0.280121 0.381334 0.338545;
   (1, 2, 1, 0) 0.34808 0.542902 0.109018;
   (0, 0, 0, 1) 0.487237 0.468944 0.0438186;
   (1, 0, 0, 1) 0.453812 0.410443 0.135744;
   (0, 1, 0, 1) 0.233017 0.444705 0.322278;
   (1, 1, 0, 1) 0.467343 0.467352 0.0653043;
   (0, 2, 0, 1) 0.0649282 0.842904 0.0921679;
   (1, 2, 0, 1) 0.245051 0.622766 0.132183;
   (0, 0, 1, 1) 0.526413 0.0314873 0.4421;
   (1, 0, 1, 1) 0.444312 0.472434 0.0832542;
   (0, 1, 1, 1) 0.53847 0.27896 0.18257;
   (1, 1, 1, 1) 0.497908 0.390429 0.111663;
   (0, 2, 1, 1) 0.58142 0.164665 0.253915;
   (1, 2, 1, 1) 0.338409 0.216375 0.445216;
}
probability (X03 | X00) {
   (0) 0.667301 0.332699;
   (1) 0.305062 0.694938;
}

