network "unnamedBN" {
// written by aGrUM 1.7.1
}

variable X10 {
   type discrete[3] {0, 1, 2};
}

variable X06 {
   type discrete[3] {0, 1, 2};
}

variable X03 {
   type discrete[2] {0, 1};
}

variable X15 {
   type discrete[2] {0, 1};
}

variable X05 {
   type discrete[3] {0, 1, 2};
}

variable X07 {
   type discrete[3] {0, 1, 2};
}

variable X01 {
   type discrete[3] {0, 1, 2};
}

variable X14 {
   type discrete[2] {0, 1};
}

variable X00 {
   type discrete[2] {0, 1};
}

variable X04 {
   type discrete[3] {0, 1, 2};
}

variable X13 {
   type discrete[3] {0, 1, 2};
}

variable X02 {
   type discrete[2] {0, 1};
}

variable X08 {
   type discrete[2] {0, 1};
}

variable X12 {
   type discrete[2] {0, 1};
}

variable X16 {
   type discrete[3] {0, 1, 2};
}

variable X09 {
   type discrete[2] {0, 1};
}

variable X11 {
   type discrete[3] {0, 1, 2};
}

probability (X10 | X09) {
   (0) 0.233582 0.673534 0.0928837;
   (1) 0.237328 0.326698 0.435974;
}
probability (X06 | X05) {
   (0) 0.115221 0.298245 0.586534;
   (1) 0.378543 0.31336 0.308097;
   (2) 0.314106 0.0530424 0.632852;
}
probability (X03 | X00, X02) {
   (0, 0) 0.551605 0.448395;
   (1, 0) 0.197411 0.802589;
   (0, 1) 0.533142 0.466858;
   (1, 1) 0.64467 0.35533;
}
probability (X15 | X14) {
   (0) 0.0180399 0.98196;
   (1) 0.605638 0.394362;
}
probability (X05) {
   default 0.205918 0.571228 0.222854;
}
probability (X07 | X00, X02, X06) {
   (0, 0, 0) 0.167427 0.383547 0.449026;
   (1, 0, 0) 0.0778678 0.459285 0.462848;
   (0, 1, 0) 0.297027 0.309357 0.393617;
   (1, 1, 0) 0.594919 0.204441 0.200639;
   (0, 0, 1) 0.479935 0.319452 0.200612;
   (1, 0, 1) 0.409753 0.346935 0.243312;
   (0, 1, 1) 0.625956 0.156766 0.217278;
   (1, 1, 1) 0.417836 0.178713 0.403451;
   (0, 0, 2) 0.677845 0.147661 0.174494;
   (1, 0, 2) 0.866205 0.132618 0.00117718;
   (0, 1, 2) 0.237492 0.426263 0.336245;
   (1, 1, 2) 0.333893 0.265344 0.400763;
}
probability (X01) {
   default 0.367223 0.499129 0.133648;
}
probability (X14 | X07, X12, X08, X13) {
   (0, 0, 0, 0) 0.323517 0.676483;
   (1, 0, 0, 0) 0.882124 0.117876;
   (2, 0, 0, 0) 0.0388621 0.961138;
   (0, 1, 0, 0) 0.376518 0.623482;
   (1, 1, 0, 0) 0.661174 0.338826;
   (2, 1, 0, 0) 0.686938 0.313062;
   (0, 0, 1, 0) 0.800179 0.199821;
   (1, 0, 1, 0) 0.499469 0.500531;
   (2, 0, 1, 0) 0.854289 0.145711;
   (0, 1, 1, 0) 0.316747 0.683253;
   (1, 1, 1, 0) 0.498879 0.501121;
   (2, 1, 1, 0) 0.65752 0.34248;
   (0, 0, 0, 1) 0.794436 0.205564;
   (1, 0, 0, 1) 0.904994 0.0950059;
   (2, 0, 0, 1) 0.395174 0.604826;
   (0, 1, 0, 1) 0.409783 0.590217;
   (1, 1, 0, 1) 0.101688 0.898312;
   (2, 1, 0, 1) 0.814641 0.185359;
   (0, 0, 1, 1) 0.957799 0.0422007;
   (1, 0, 1, 1) 0.69647 0.30353;
   (2, 0, 1, 1) 0.544321 0.455679;
   (0, 1, 1, 1) 0.59619 0.40381;
   (1, 1, 1, 1) 0.746107 0.253893;
   (2, 1, 1, 1) 0.0253896 0.97461;
   (0, 0, 0, 2) 0.272312 0.727688;
   (1, 0, 0, 2) 0.509723 0.490277;
   (2, 0, 0, 2) 0.433725 0.566275;
   (0, 1, 0, 2) 0.0790896 0.92091;
   (1, 1, 0, 2) 0.489741 0.510259;
   (2, 1, 0, 2) 0.962025 0.0379749;
   (0, 0, 1, 2) 0.286237 0.713763;
   (1, 0, 1, 2) 0.564875 0.435125;
   (2, 0, 1, 2) 0.592397 0.407603;
   (0, 1, 1, 2) 0.407204 0.592796;
   (1, 1, 1, 2) 0.225671 0.774329;
   (2, 1, 1, 2) 0.0745476 0.925452;
}
probability (X00) {
   default 0.240519 0.759481;
}
probability (X04 | X02) {
   (0) 0.55215 0.35359 0.0942601;
   (1) 0.581086 0.256533 0.162381;
}
probability (X13 | X11, X08, X01) {
   (0, 0, 0) 0.559608 0.153432 0.28696;
   (1, 0, 0) 0.5506 0.367504 0.0818961;
   (2, 0, 0) 0.532417 0.33092 0.136663;
   (0, 1, 0) 0.219137 0.586165 0.194698;
   (1, 1, 0) 0.550405 0.116064 0.333531;
   (2, 1, 0) 0.60733 0.35583 0.0368403;
   (0, 0, 1) 0.179327 0.456846 0.363827;
   (1, 0, 1) 0.127173 0.579211 0.293615;
   (2, 0, 1) 0.338883 0.320547 0.340569;
   (0, 1, 1) 0.454598 0.243673 0.301729;
   (1, 1, 1) 0.394767 0.241563 0.363669;
   (2, 1, 1) 0.500112 0.336742 0.163146;
   (0, 0, 2) 0.420949 0.516093 0.0629584;
   (1, 0, 2) 0.516716 0.332231 0.151053;
   (2, 0, 2) 0.383576 0.525326 0.091098;
   (0, 1, 2) 0.387662 0.142933 0.469405;
   (1, 1, 2) 0.236064 0.240733 0.523203;
   (2, 1, 2) 0.158791 0.120519 0.72069;
}
probability (X02 | X01) {
   (0) 0.971116 0.028884;
   (1) 0.837736 0.162264;
   (2) 0.607034 0.392966;
}
probability (X08 | X07, X04) {
   (0, 0) 0.869079 0.130921;
   (1, 0) 0.0981023 0.901898;
   (2, 0) 0.957956 0.0420439;
   (0, 1) 0.399445 0.600555;
   (1, 1) 0.753977 0.246023;
   (2, 1) 0.191573 0.808427;
   (0, 2) 0.6198 0.3802;
   (1, 2) 0.616168 0.383832;
   (2, 2) 0.703641 0.296359;
}
probability (X12 | X11) {
   (0) 0.689242 0.310758;
   (1) 0.483919 0.516081;
   (2) 0.920967 0.0790333;
}
probability (X16 | X05, X15) {
   (0, 0) 0.246852 0.234031 0.519117;
   (1, 0) 0.450389 0.143756 0.405855;
   (2, 0) 0.377336 0.135065 0.4876;
   (0, 1) 0.241662 0.475203 0.283136;
   (1, 1) 0.352114 0.393787 0.254099;
   (2, 1) 0.410738 0.284134 0.305127;
}
probability (X09 | X04, X08) {
   (0, 0) 0.795333 0.204667;
   (1, 0) 0.492945 0.507055;
   (2, 0) 0.95642 0.0435804;
   (0, 1) 0.699748 0.300252;
   (1, 1) 0.00983964 0.99016;
   (2, 1) 0.27787 0.72213;
}
probability (X11 | X10) {
   (0) 0.262609 0.589675 0.147716;
   (1) 0.49934 0.255605 0.245055;
   (2) 0.293161 0.114403 0.592436;
}

