network "unnamedBN" {
// written by aGrUM 1.7.1
}

variable X10 {
   type discrete[3] {0, 1, 2};
}

variable X11 {
   type discrete[2] {0, 1};
}

variable X14 {
   type discrete[3] {0, 1, 2};
}

variable X09 {
   type discrete[3] {0, 1, 2};
}

variable X04 {
   type discrete[3] {0, 1, 2};
}

variable X02 {
   type discrete[2] {0, 1};
}

variable X13 {
   type discrete[3] {0, 1, 2};
}

variable X01 {
   type discrete[2] {0, 1};
}

variable X07 {
   type discrete[3] {0, 1, 2};
}

variable X05 {
   type discrete[2] {0, 1};
}

variable X08 {
   type discrete[3] {0, 1, 2};
}

variable X12 {
   type discrete[2] {0, 1};
}

variable X00 {
   type discrete[2] {0, 1};
}

variable X15 {
   type discrete[3] {0, 1, 2};
}

variable X03 {
   type discrete[3] {0, 1, 2};
}

variable X06 {
   type discrete[2] {0, 1};
}

probability (X10 | X09) {
   (0) 0.129035 0.385881 0.485083;
   (1) 0.346215 0.242724 0.411061;
   (2) 0.24941 0.478604 0.271986;
}
probability (X11 | X10, X04, X08) {
   (0, 0, 0) 0.307161 0.692839;
   (1, 0, 0) 0.487799 0.512201;
   (2, 0, 0) 0.485862 0.514138;
   (0, 1, 0) 0.758948 0.241052;
   (1, 1, 0) 0.416959 0.583041;
   (2, 1, 0) 0.825382 0.174618;
   (0, 2, 0) 0.711307 0.288693;
   (1, 2, 0) 0.113529 0.886471;
   (2, 2, 0) 0.295607 0.704393;
   (0, 0, 1) 0.129217 0.870783;
   (1, 0, 1) 0.56291 0.43709;
   (2, 0, 1) 0.152545 0.847455;
   (0, 1, 1) 0.73207 0.26793;
   (1, 1, 1) 0.615068 0.384932;
   (2, 1, 1) 0.294618 0.705382;
   (0, 2, 1) 0.574649 0.425351;
   (1, 2, 1) 0.0526324 0.947368;
   (2, 2, 1) 0.678835 0.321165;
   (0, 0, 2) 0.258854 0.741146;
   (1, 0, 2) 0.0951575 0.904843;
   (2, 0, 2) 0.832332 0.167668;
   (0, 1, 2) 0.501467 0.498533;
   (1, 1, 2) 0.499837 0.500163;
   (2, 1, 2) 0.918242 0.0817579;
   (0, 2, 2) 0.701359 0.298641;
   (1, 2, 2) 0.999042 0.000958066;
   (2, 2, 2) 0.25784 0.74216;
}
probability (X14 | X13, X07, X02, X09) {
   (0, 0, 0, 0) 0.250121 0.333997 0.415882;
   (1, 0, 0, 0) 0.456956 0.281658 0.261385;
   (2, 0, 0, 0) 0.475672 0.0566072 0.467721;
   (0, 1, 0, 0) 0.526463 0.1803 0.293238;
   (1, 1, 0, 0) 0.354105 0.324345 0.32155;
   (2, 1, 0, 0) 0.328917 0.192115 0.478968;
   (0, 2, 0, 0) 0.0932611 0.308985 0.597754;
   (1, 2, 0, 0) 0.0497153 0.62808 0.322204;
   (2, 2, 0, 0) 0.519448 0.170064 0.310488;
   (0, 0, 1, 0) 0.140738 0.476736 0.382526;
   (1, 0, 1, 0) 0.31241 0.115448 0.572143;
   (2, 0, 1, 0) 0.230726 0.582277 0.186997;
   (0, 1, 1, 0) 0.404013 0.265639 0.330348;
   (1, 1, 1, 0) 0.250946 0.293403 0.455651;
   (2, 1, 1, 0) 0.515947 0.36967 0.114383;
   (0, 2, 1, 0) 0.415059 0.207211 0.37773;
   (1, 2, 1, 0) 0.107634 0.229231 0.663135;
   (2, 2, 1, 0) 0.0540193 0.401003 0.544978;
   (0, 0, 0, 1) 0.485377 0.46382 0.0508027;
   (1, 0, 0, 1) 0.520602 0.436984 0.0424143;
   (2, 0, 0, 1) 0.526036 0.0815499 0.392414;
   (0, 1, 0, 1) 0.409807 0.506502 0.0836912;
   (1, 1, 0, 1) 0.361628 0.431826 0.206546;
   (2, 1, 0, 1) 0.542582 0.2793 0.178118;
   (0, 2, 0, 1) 0.0388915 0.570772 0.390337;
   (1, 2, 0, 1) 0.207161 0.420081 0.372757;
   (2, 2, 0, 1) 0.202538 0.460607 0.336855;
   (0, 0, 1, 1) 0.158797 0.0981721 0.743031;
   (1, 0, 1, 1) 0.639297 0.175971 0.184732;
   (2, 0, 1, 1) 0.3031 0.410451 0.286449;
   (0, 1, 1, 1) 0.0778709 0.617896 0.304233;
   (1, 1, 1, 1) 0.519727 0.370584 0.10969;
   (2, 1, 1, 1) 0.0654066 0.416511 0.518082;
   (0, 2, 1, 1) 0.218633 0.399638 0.381729;
   (1, 2, 1, 1) 0.410155 0.491613 0.0982316;
   (2, 2, 1, 1) 0.728206 0.0316834 0.240111;
   (0, 0, 0, 2) 0.357887 0.23058 0.411533;
   (1, 0, 0, 2) 0.42077 0.444418 0.134812;
   (2, 0, 0, 2) 0.396625 0.462301 0.141075;
   (0, 1, 0, 2) 0.301859 0.356333 0.341809;
   (1, 1, 0, 2) 0.0295666 0.861261 0.109172;
   (2, 1, 0, 2) 0.091325 0.426329 0.482346;
   (0, 2, 0, 2) 0.447606 0.443356 0.109037;
   (1, 2, 0, 2) 0.443468 0.0732457 0.483286;
   (2, 2, 0, 2) 0.31379 0.643595 0.0426152;
   (0, 0, 1, 2) 0.380578 0.298928 0.320495;
   (1, 0, 1, 2) 0.311088 0.268849 0.420063;
   (2, 0, 1, 2) 0.304208 0.074449 0.621343;
   (0, 1, 1, 2) 0.463951 0.283443 0.252606;
   (1, 1, 1, 2) 0.339698 0.382973 0.277329;
   (2, 1, 1, 2) 0.0788474 0.878352 0.0428001;
   (0, 2, 1, 2) 0.165085 0.725831 0.109084;
   (1, 2, 1, 2) 0.433315 0.210148 0.356537;
   (2, 2, 1, 2) 0.278191 0.27277 0.449039;
}
probability (X09 | X00, X07) {
   (0, 0) 0.434009 0.503361 0.06263;
   (1, 0) 0.194414 0.476635 0.328951;
   (0, 1) 0.318781 0.295584 0.385635;
   (1, 1) 0.304031 0.462627 0.233342;
   (0, 2) 0.328736 0.258565 0.412699;
   (1, 2) 0.445324 0.358313 0.196363;
}
probability (X04 | X01) {
   (0) 0.32357 0.55815 0.11828;
   (1) 0.390343 0.0272256 0.582431;
}
probability (X02 | X01) {
   (0) 0.168385 0.831615;
   (1) 0.727753 0.272247;
}
probability (X13) {
   default 0.348599 0.426258 0.225143;
}
probability (X01 | X00) {
   (0) 0.358133 0.641867;
   (1) 0.382303 0.617697;
}
probability (X07) {
   default 0.205394 0.233298 0.561308;
}
probability (X05) {
   default 0.36438 0.63562;
}
probability (X08 | X07) {
   (0) 0.0295392 0.52881 0.44165;
   (1) 0.389624 0.319425 0.290951;
   (2) 0.503572 0.34774 0.148688;
}
probability (X12 | X09, X03) {
   (0, 0) 0.561566 0.438434;
   (1, 0) 0.604317 0.395683;
   (2, 0) 0.669873 0.330127;
   (0, 1) 0.558984 0.441016;
   (1, 1) 0.813217 0.186783;
   (2, 1) 0.431733 0.568267;
   (0, 2) 0.914044 0.0859564;
   (1, 2) 0.229592 0.770408;
   (2, 2) 0.657506 0.342494;
}
probability (X00) {
   default 0.637738 0.362262;
}
probability (X15 | X13, X10, X05, X09) {
   (0, 0, 0, 0) 0.511889 0.024146 0.463965;
   (1, 0, 0, 0) 0.554599 0.296934 0.148467;
   (2, 0, 0, 0) 0.291525 0.461377 0.247097;
   (0, 1, 0, 0) 0.369757 0.415249 0.214994;
   (1, 1, 0, 0) 0.121556 0.124161 0.754282;
   (2, 1, 0, 0) 0.416192 0.268768 0.31504;
   (0, 2, 0, 0) 0.211146 0.619671 0.169183;
   (1, 2, 0, 0) 0.290021 0.420027 0.289952;
   (2, 2, 0, 0) 0.411867 0.216974 0.37116;
   (0, 0, 1, 0) 0.130555 0.597169 0.272276;
   (1, 0, 1, 0) 0.627306 0.0310667 0.341627;
   (2, 0, 1, 0) 0.140738 0.479635 0.379627;
   (0, 1, 1, 0) 0.474298 0.475759 0.0499438;
   (1, 1, 1, 0) 0.579192 0.111469 0.309339;
   (2, 1, 1, 0) 0.117704 0.410098 0.472198;
   (0, 2, 1, 0) 0.167415 0.348984 0.483601;
   (1, 2, 1, 0) 0.272612 0.518161 0.209227;
   (2, 2, 1, 0) 0.31345 0.107649 0.578901;
   (0, 0, 0, 1) 0.0634855 0.581323 0.355192;
   (1, 0, 0, 1) 0.40343 0.25553 0.34104;
   (2, 0, 0, 1) 0.444869 0.198448 0.356683;
   (0, 1, 0, 1) 0.342185 0.170992 0.486823;
   (1, 1, 0, 1) 0.279529 0.124057 0.596414;
   (2, 1, 0, 1) 0.0624938 0.434652 0.502854;
   (0, 2, 0, 1) 0.191591 0.456809 0.3516;
   (1, 2, 0, 1) 0.0600255 0.821808 0.118166;
   (2, 2, 0, 1) 0.420567 0.280763 0.29867;
   (0, 0, 1, 1) 0.4464 0.171615 0.381985;
   (1, 0, 1, 1) 0.154029 0.421345 0.424626;
   (2, 0, 1, 1) 0.300457 0.431562 0.267981;
   (0, 1, 1, 1) 0.207729 0.543621 0.248651;
   (1, 1, 1, 1) 0.29381 0.215001 0.491189;
   (2, 1, 1, 1) 0.324594 0.249607 0.425799;
   (0, 2, 1, 1) 0.303047 0.34092 0.356033;
   (1, 2, 1, 1) 0.47903 0.403394 0.117576;
   (2, 2, 1, 1) 0.404489 0.272886 0.322625;
   (0, 0, 0, 2) 0.384239 0.223584 0.392176;
   (1, 0, 0, 2) 0.220518 0.405168 0.374314;
   (2, 0, 0, 2) 0.362673 0.337128 0.300199;
   (0, 1, 0, 2) 0.265483 0.433267 0.30125;
   (1, 1, 0, 2) 0.303652 0.524618 0.17173;
   (2, 1, 0, 2) 0.160204 0.07005 0.769746;
   (0, 2, 0, 2) 0.328143 0.157861 0.513997;
   (1, 2, 0, 2) 0.251202 0.375203 0.373595;
   (2, 2, 0, 2) 0.121034 0.742454 0.136513;
   (0, 0, 1, 2) 0.400842 0.220402 0.378756;
   (1, 0, 1, 2) 0.341329 0.275728 0.382942;
   (2, 0, 1, 2) 0.337047 0.302938 0.360015;
   (0, 1, 1, 2) 0.0799964 0.210676 0.709327;
   (1, 1, 1, 2) 0.546244 0.0114489 0.442307;
   (2, 1, 1, 2) 0.759632 0.0949803 0.145388;
   (0, 2, 1, 2) 0.138734 0.437579 0.423687;
   (1, 2, 1, 2) 0.362888 0.269332 0.36778;
   (2, 2, 1, 2) 0.20528 0.10669 0.68803;
}
probability (X03 | X02) {
   (0) 0.374413 0.307957 0.31763;
   (1) 0.0239476 0.482895 0.493157;
}
probability (X06 | X01, X05) {
   (0, 0) 0.954098 0.0459024;
   (1, 0) 0.610636 0.389364;
   (0, 1) 0.136406 0.863594;
   (1, 1) 0.669895 0.330105;
}

