network "unnamedBN" {
// written by aGrUM 1.7.1
}

variable X11 {
   type discrete[3] {0, 1, 2};
}

variable X14 {
   type discrete[2] {0, 1};
}

variable X06 {
   type discrete[3] {0, 1, 2};
}

variable X13 {
   type discrete[3] {0, 1, 2};
}

variable X05 {
   type discrete[3] {0, 1, 2};
}

variable X12 {
   type discrete[3] {0, 1, 2};
}

variable X01 {
   type discrete[3] {0, 1, 2};
}

variable X02 {
   type discrete[2] {0, 1};
}

variable X09 {
   type discrete[3] {0, 1, 2};
}

variable X07 {
   type discrete[2] {0, 1};
}

variable X03 {
   type discrete[3] {0, 1, 2};
}

variable X10 {
   type discrete[2] {0, 1};
}

variable X08 {
   type discrete[3] {0, 1, 2};
}

variable X00 {
   type discrete[2] {0, 1};
}

variable X04 {
   type discrete[3] {0, 1, 2};
}

probability (X11 | X10, X03, X09) {
   (0, 0, 0) 0.497688 0.184445 0.317867;
   (1, 0, 0) 0.447263 0.138748 0.413989;
   (0, 1, 0) 0.342089 0.060005 0.597906;
   (1, 1, 0) 0.470193 0.449497 0.0803104;
   (0, 2, 0) 0.460794 0.329332 0.209874;
   (1, 2, 0) 0.425314 0.0714813 0.503205;
   (0, 0, 1) 0.690305 0.166485 0.14321;
   (1, 0, 1) 0.29738 0.36831 0.33431;
   (0, 1, 1) 0.401608 0.194576 0.403817;
   (1, 1, 1) 0.436639 0.0683904 0.49497;
   (0, 2, 1) 0.371481 0.529788 0.0987313;
   (1, 2, 1) 0.088584 0.154094 0.757322;
   (0, 0, 2) 0.145179 0.59595 0.258871;
   (1, 0, 2) 0.232349 0.516719 0.250932;
   (0, 1, 2) 0.387338 0.0528679 0.559794;
   (1, 1, 2) 0.104498 0.706261 0.189242;
   (0, 2, 2) 0.457888 0.523134 0.0189783;
   (1, 2, 2) 0.866913 0.0214793 0.111607;
}
probability (X14 | X04, X10) {
   (0, 0) 0.986742 0.0132575;
   (1, 0) 0.367524 0.632476;
   (2, 0) 0.667811 0.332189;
   (0, 1) 0.494068 0.505932;
   (1, 1) 0.35402 0.64598;
   (2, 1) 0.497225 0.502775;
}
probability (X06 | X05) {
   (0) 0.281831 0.169099 0.54907;
   (1) 0.395201 0.313221 0.291578;
   (2) 0.0519315 0.652681 0.295387;
}
probability (X13 | X12, X08) {
   (0, 0) 0.322419 0.332235 0.345346;
   (1, 0) 0.500782 0.262047 0.237171;
   (2, 0) 0.229246 0.346641 0.424113;
   (0, 1) 0.132249 0.468513 0.399238;
   (1, 1) 0.308348 0.463813 0.22784;
   (2, 1) 0.510316 0.2769 0.212785;
   (0, 2) 0.422314 0.301536 0.27615;
   (1, 2) 0.201227 0.330555 0.468218;
   (2, 2) 0.415851 0.0992012 0.484948;
}
probability (X05) {
   default 0.454723 0.406492 0.138785;
}
probability (X12 | X04, X11) {
   (0, 0) 0.656126 0.30037 0.0435036;
   (1, 0) 0.3653 0.352059 0.282641;
   (2, 0) 0.176642 0.539022 0.284336;
   (0, 1) 0.350593 0.365504 0.283902;
   (1, 1) 0.44461 0.046514 0.508876;
   (2, 1) 0.238813 0.186697 0.57449;
   (0, 2) 0.743482 0.211764 0.0447539;
   (1, 2) 0.223146 0.520037 0.256817;
   (2, 2) 0.389115 0.0199034 0.590981;
}
probability (X01 | X00) {
   (0) 0.380228 0.367197 0.252575;
   (1) 0.432078 0.540433 0.0274892;
}
probability (X02) {
   default 0.22677 0.77323;
}
probability (X09 | X02, X01, X08) {
   (0, 0, 0) 0.339517 0.470951 0.189532;
   (1, 0, 0) 0.440611 0.277251 0.282138;
   (0, 1, 0) 0.361644 0.310867 0.327489;
   (1, 1, 0) 0.369519 0.304071 0.32641;
   (0, 2, 0) 0.397512 0.591787 0.0107011;
   (1, 2, 0) 0.0995991 0.431461 0.46894;
   (0, 0, 1) 0.0947271 0.644964 0.260309;
   (1, 0, 1) 0.209986 0.422018 0.367996;
   (0, 1, 1) 0.722919 0.274049 0.00303196;
   (1, 1, 1) 0.815659 0.0224996 0.161841;
   (0, 2, 1) 0.527612 0.215578 0.25681;
   (1, 2, 1) 0.245703 0.293776 0.460521;
   (0, 0, 2) 0.0763874 0.339282 0.584331;
   (1, 0, 2) 0.348979 0.297953 0.353068;
   (0, 1, 2) 0.202676 0.303615 0.493709;
   (1, 1, 2) 0.29103 0.383582 0.325389;
   (0, 2, 2) 0.00921481 0.180843 0.809943;
   (1, 2, 2) 0.0848608 0.433978 0.481162;
}
probability (X07 | X06) {
   (0) 0.298826 0.701174;
   (1) 0.483053 0.516947;
   (2) 0.285581 0.714419;
}
probability (X03 | X00, X02) {
   (0, 0) 0.407246 0.499559 0.0931954;
   (1, 0) 0.457048 0.186182 0.35677;
   (0, 1) 0.481795 0.136371 0.381835;
   (1, 1) 0.155786 0.78412 0.0600943;
}
probability (X10 | X07) {
   (0) 0.377889 0.622111;
   (1) 0.424581 0.575419;
}
probability (X08 | X02, X07) {
   (0, 0) 0.135727 0.389058 0.475215;
   (1, 0) 0.645704 0.200138 0.154157;
   (0, 1) 0.088982 0.286402 0.624616;
   (1, 1) 0.0709875 0.222263 0.70675;
}
probability (X00) {
   default 0.895336 0.104664;
}
probability (X04 | X03) {
   (0) 0.551044 0.182008 0.266948;
   (1) 0.431352 0.327239 0.241409;
   (2) 0.050534 0.355492 0.593974;
}

