network "unnamedBN" {
// written by aGrUM 1.7.1
}

variable X05 {
   type discrete[2] {0, 1};
}

variable X02 {
   type discrete[3] {0, 1, 2};
}

variable X08 {
   type discrete[2] {0, 1};
}

variable X09 {
   type discrete[3] {0, 1, 2};
}

variable X01 {
   type discrete[2] {0, 1};
}

variable X03 {
   type discrete[3] {0, 1, 2};
}

variable X06 {
   type discrete[2] {0, 1};
}

variable X07 {
   type discrete[3] {0, 1, 2};
}

variable X04 {
   type discrete[2] {0, 1};
}

variable X00 {
   type discrete[3] {0, 1, 2};
}

probability (X05 | X03, X04, X01) {
   (0, 0, 0) 0.184295 0.815705;
   (1, 0, 0) 0.638306 0.361694;
   (2, 0, 0) 0.524945 0.475055;
   (0, 1, 0) 0.742359 0.257641;
   (1, 1, 0) 0.857079 0.142921;
   (2, 1, 0) 0.223242 0.776758;
   (0, 0, 1) 0.679305 0.320695;
   (1, 0, 1) 0.567106 0.432894;
   (2, 0, 1) 0.763632 0.236368;
   (0, 1, 1) 0.939215 0.0607845;
   (1, 1, 1) 0.525839 0.474161;
   (2, 1, 1) 0.50157 0.49843;
}
probability (X02) {
   default 0.492344 0.0737901 0.433866;
}
probability (X08 | X07) {
   (0) 0.442712 0.557288;
   (1) 0.825325 0.174675;
   (2) 0.615608 0.384392;
}
probability (X09 | X05) {
   (0) 0.4672 0.436033 0.0967675;
   (1) 0.728287 0.0310912 0.240621;
}
probability (X01 | X00) {
   (0) 0.576752 0.423248;
   (1) 0.542147 0.457853;
   (2) 0.315503 0.684497;
}
probability (X03 | X02) {
   (0) 0.146285 0.416505 0.437209;
   (1) 0.288802 0.353984 0.357213;
   (2) 0.482169 0.290305 0.227526;
}
probability (X06 | X05, X00, X02, X03) {
   (0, 0, 0, 0) 0.209064 0.790936;
   (1, 0, 0, 0) 0.631359 0.368641;
   (0, 1, 0, 0) 0.308387 0.691613;
   (1, 1, 0, 0) 0.463859 0.536141;
   (0, 2, 0, 0) 0.558318 0.441682;
   (1, 2, 0, 0) 0.474842 0.525158;
   (0, 0, 1, 0) 0.391536 0.608464;
   (1, 0, 1, 0) 0.547215 0.452785;
   (0, 1, 1, 0) 0.383222 0.616778;
   (1, 1, 1, 0) 0.432354 0.567646;
   (0, 2, 1, 0) 0.8707 0.1293;
   (1, 2, 1, 0) 0.74686 0.25314;
   (0, 0, 2, 0) 0.992768 0.00723213;
   (1, 0, 2, 0) 0.668336 0.331664;
   (0, 1, 2, 0) 0.79816 0.20184;
   (1, 1, 2, 0) 0.362008 0.637992;
   (0, 2, 2, 0) 0.157545 0.842455;
   (1, 2, 2, 0) 0.215631 0.784369;
   (0, 0, 0, 1) 0.816275 0.183725;
   (1, 0, 0, 1) 0.531915 0.468085;
   (0, 1, 0, 1) 0.46858 0.53142;
   (1, 1, 0, 1) 0.543464 0.456536;
   (0, 2, 0, 1) 0.387407 0.612593;
   (1, 2, 0, 1) 0.980611 0.0193889;
   (0, 0, 1, 1) 0.387449 0.612551;
   (1, 0, 1, 1) 0.860759 0.139241;
   (0, 1, 1, 1) 0.948968 0.0510324;
   (1, 1, 1, 1) 0.556121 0.443879;
   (0, 2, 1, 1) 0.180388 0.819612;
   (1, 2, 1, 1) 0.408689 0.591311;
   (0, 0, 2, 1) 0.477548 0.522452;
   (1, 0, 2, 1) 0.459762 0.540238;
   (0, 1, 2, 1) 0.50879 0.49121;
   (1, 1, 2, 1) 0.400153 0.599847;
   (0, 2, 2, 1) 0.902642 0.0973581;
   (1, 2, 2, 1) 0.814699 0.185301;
   (0, 0, 0, 2) 0.728117 0.271883;
   (1, 0, 0, 2) 0.268801 0.731199;
   (0, 1, 0, 2) 0.63852 0.36148;
   (1, 1, 0, 2) 0.431032 0.568968;
   (0, 2, 0, 2) 0.257549 0.742451;
   (1, 2, 0, 2) 0.833915 0.166085;
   (0, 0, 1, 2) 0.645915 0.354085;
   (1, 0, 1, 2) 0.507849 0.492151;
   (0, 1, 1, 2) 0.479522 0.520478;
   (1, 1, 1, 2) 0.233028 0.766972;
   (0, 2, 1, 2) 0.347271 0.652729;
   (1, 2, 1, 2) 0.404643 0.595357;
   (0, 0, 2, 2) 0.469795 0.530205;
   (1, 0, 2, 2) 0.187504 0.812496;
   (0, 1, 2, 2) 0.547086 0.452914;
   (1, 1, 2, 2) 0.546238 0.453762;
   (0, 2, 2, 2) 0.31367 0.68633;
   (1, 2, 2, 2) 0.217437 0.782563;
}
probability (X07 | X03, X04, X06) {
   (0, 0, 0) 0.244511 0.34457 0.410919;
   (1, 0, 0) 0.53857 0.191194 0.270236;
   (2, 0, 0) 0.433927 0.186253 0.37982;
   (0, 1, 0) 0.429099 0.465329 0.105572;
   (1, 1, 0) 0.392026 0.19203 0.415945;
   (2, 1, 0) 0.0160225 0.392634 0.591343;
   (0, 0, 1) 0.438365 0.24531 0.316325;
   (1, 0, 1) 0.474998 0.316888 0.208114;
   (2, 0, 1) 0.69671 0.261549 0.0417407;
   (0, 1, 1) 0.302197 0.37719 0.320613;
   (1, 1, 1) 0.432636 0.444876 0.122488;
   (2, 1, 1) 0.635851 0.363617 0.000531603;
}
probability (X04 | X03) {
   (0) 0.901359 0.0986409;
   (1) 0.453982 0.546018;
   (2) 0.882743 0.117257;
}
probability (X00) {
   default 0.430047 0.0933058 0.476647;
}

