network "unnamedBN" {
// written by aGrUM 1.7.1
}

variable X07 {
   type discrete[3] {0, 1, 2};
}

variable X10 {
   type discrete[3] {0, 1, 2};
}

variable X05 {
   type discrete[3] {0, 1, 2};
}

variable X06 {
   type discrete[3] {0, 1, 2};
}

variable X03 {
   type discrete[3] {0, 1, 2};
}

variable X02 {
   type discrete[3] {0, 1, 2};
}

variable X04 {
   type discrete[3] {0, 1, 2};
}

variable X08 {
   type discrete[2] {0, 1};
}

variable X00 {
   type discrete[2] {0, 1};
}

variable X13 {
   type discrete[2] {0, 1};
}

variable X11 {
   type discrete[3] {0, 1, 2};
}

variable X09 {
   type discrete[3] {0, 1, 2};
}

variable X12 {
   type discrete[2] {0, 1};
}

variable X01 {
   type discrete[2] {0, 1};
}

probability (X07 | X06) {
   (0) 0.169695 0.309412 0.520893;
   (1) 0.311511 0.31321 0.375279;
   (2) 0.332157 0.372964 0.294878;
}
probability (X10 | X00, X06) {
   (0, 0) 0.498211 0.242651 0.259138;
   (1, 0) 0.316574 0.391941 0.291485;
   (0, 1) 0.467528 0.0033848 0.529087;
   (1, 1) 0.249289 0.31455 0.436161;
   (0, 2) 0.877219 0.023913 0.0988677;
   (1, 2) 0.474061 0.2395 0.286439;
}
probability (X05 | X04) {
   (0) 0.0888793 0.513796 0.397325;
   (1) 0.0321444 0.770931 0.196924;
   (2) 0.147666 0.430519 0.421816;
}
probability (X06) {
   default 0.343884 0.38909 0.267026;
}
probability (X03 | X02) {
   (0) 0.193744 0.571025 0.235231;
   (1) 0.291111 0.437373 0.271516;
   (2) 0.1587 0.769228 0.0720715;
}
probability (X02) {
   default 0.0274891 0.898938 0.0735727;
}
probability (X04 | X03) {
   (0) 0.447725 0.301374 0.250902;
   (1) 0.416807 0.22553 0.357663;
   (2) 0.384845 0.311899 0.303256;
}
probability (X08 | X01, X07, X05) {
   (0, 0, 0) 0.429658 0.570342;
   (1, 0, 0) 0.915267 0.0847325;
   (0, 1, 0) 0.386809 0.613191;
   (1, 1, 0) 0.566872 0.433128;
   (0, 2, 0) 0.297318 0.702682;
   (1, 2, 0) 0.651588 0.348412;
   (0, 0, 1) 0.788378 0.211622;
   (1, 0, 1) 0.828301 0.171699;
   (0, 1, 1) 0.444504 0.555496;
   (1, 1, 1) 0.746764 0.253236;
   (0, 2, 1) 0.413945 0.586055;
   (1, 2, 1) 0.821534 0.178466;
   (0, 0, 2) 0.330116 0.669884;
   (1, 0, 2) 0.802947 0.197053;
   (0, 1, 2) 0.798049 0.201951;
   (1, 1, 2) 0.471962 0.528038;
   (0, 2, 2) 0.64311 0.35689;
   (1, 2, 2) 0.0968236 0.903176;
}
probability (X00) {
   default 0.552317 0.447683;
}
probability (X13 | X12) {
   (0) 0.112285 0.887715;
   (1) 0.540133 0.459867;
}
probability (X11 | X05, X03, X00, X10, X02) {
   (0, 0, 0, 0, 0) 0.197762 0.199536 0.602702;
   (1, 0, 0, 0, 0) 0.151807 0.0574057 0.790787;
   (2, 0, 0, 0, 0) 0.410444 0.239578 0.349977;
   (0, 1, 0, 0, 0) 0.568856 0.294454 0.136691;
   (1, 1, 0, 0, 0) 0.246118 0.528919 0.224963;
   (2, 1, 0, 0, 0) 0.404092 0.40549 0.190418;
   (0, 2, 0, 0, 0) 0.488373 0.0373872 0.47424;
   (1, 2, 0, 0, 0) 0.556831 0.204447 0.238722;
   (2, 2, 0, 0, 0) 0.820499 0.173419 0.00608199;
   (0, 0, 1, 0, 0) 0.174562 0.36155 0.463889;
   (1, 0, 1, 0, 0) 0.377545 0.224469 0.397986;
   (2, 0, 1, 0, 0) 0.23736 0.266216 0.496424;
   (0, 1, 1, 0, 0) 0.16764 0.434017 0.398344;
   (1, 1, 1, 0, 0) 0.333712 0.237492 0.428795;
   (2, 1, 1, 0, 0) 0.206237 0.358163 0.4356;
   (0, 2, 1, 0, 0) 0.427057 0.120659 0.452284;
   (1, 2, 1, 0, 0) 0.552849 0.124982 0.322169;
   (2, 2, 1, 0, 0) 0.244845 0.485115 0.27004;
   (0, 0, 0, 1, 0) 0.775293 0.0215508 0.203156;
   (1, 0, 0, 1, 0) 0.388145 0.509691 0.102165;
   (2, 0, 0, 1, 0) 0.618984 0.236027 0.144989;
   (0, 1, 0, 1, 0) 0.011797 0.84689 0.141313;
   (1, 1, 0, 1, 0) 0.315847 0.346046 0.338108;
   (2, 1, 0, 1, 0) 0.345577 0.424801 0.229622;
   (0, 2, 0, 1, 0) 0.396506 0.463969 0.139524;
   (1, 2, 0, 1, 0) 0.242864 0.316502 0.440634;
   (2, 2, 0, 1, 0) 0.383716 0.4024 0.213884;
   (0, 0, 1, 1, 0) 0.265495 0.475361 0.259143;
   (1, 0, 1, 1, 0) 0.34362 0.356445 0.299935;
   (2, 0, 1, 1, 0) 0.227323 0.574373 0.198305;
   (0, 1, 1, 1, 0) 0.182695 0.444358 0.372947;
   (1, 1, 1, 1, 0) 0.334483 0.21956 0.445957;
   (2, 1, 1, 1, 0) 0.523138 0.391826 0.0850362;
   (0, 2, 1, 1, 0) 0.0317154 0.415397 0.552888;
   (1, 2, 1, 1, 0) 0.470261 0.0857997 0.443939;
   (2, 2, 1, 1, 0) 0.180893 0.595079 0.224028;
   (0, 0, 0, 2, 0) 0.186105 0.446142 0.367753;
   (1, 0, 0, 2, 0) 0.320968 0.263796 0.415236;
   (2, 0, 0, 2, 0) 0.431329 0.42477 0.143901;
   (0, 1, 0, 2, 0) 0.136752 0.402668 0.46058;
   (1, 1, 0, 2, 0) 0.0388905 0.603222 0.357887;
   (2, 1, 0, 2, 0) 0.374481 0.262606 0.362913;
   (0, 2, 0, 2, 0) 0.587285 0.0223796 0.390335;
   (1, 2, 0, 2, 0) 0.399484 0.297425 0.303091;
   (2, 2, 0, 2, 0) 0.310901 0.354841 0.334258;
   (0, 0, 1, 2, 0) 0.481263 0.514564 0.00417371;
   (1, 0, 1, 2, 0) 0.18237 0.18269 0.63494;
   (2, 0, 1, 2, 0) 0.352861 0.374352 0.272787;
   (0, 1, 1, 2, 0) 0.657838 0.051226 0.290936;
   (1, 1, 1, 2, 0) 0.19921 0.141369 0.659421;
   (2, 1, 1, 2, 0) 0.0518863 0.0003719 0.947742;
   (0, 2, 1, 2, 0) 0.475403 0.391855 0.132741;
   (1, 2, 1, 2, 0) 0.388019 0.448376 0.163606;
   (2, 2, 1, 2, 0) 0.31013 0.370857 0.319013;
   (0, 0, 0, 0, 1) 0.295995 0.396279 0.307726;
   (1, 0, 0, 0, 1) 0.079435 0.553816 0.366749;
   (2, 0, 0, 0, 1) 0.32612 0.355503 0.318377;
   (0, 1, 0, 0, 1) 0.476058 0.372319 0.151623;
   (1, 1, 0, 0, 1) 0.419266 0.279534 0.3012;
   (2, 1, 0, 0, 1) 0.317043 0.233178 0.44978;
   (0, 2, 0, 0, 1) 0.316618 0.564356 0.119026;
   (1, 2, 0, 0, 1) 0.243587 0.485303 0.27111;
   (2, 2, 0, 0, 1) 0.910104 0.0438154 0.0460809;
   (0, 0, 1, 0, 1) 0.536151 0.422281 0.0415675;
   (1, 0, 1, 0, 1) 0.0394457 0.348733 0.611822;
   (2, 0, 1, 0, 1) 0.204426 0.258122 0.537452;
   (0, 1, 1, 0, 1) 0.299453 0.0866348 0.613912;
   (1, 1, 1, 0, 1) 0.316 0.171495 0.512505;
   (2, 1, 1, 0, 1) 0.440619 0.088369 0.471012;
   (0, 2, 1, 0, 1) 0.348067 0.34641 0.305523;
   (1, 2, 1, 0, 1) 0.0810649 0.840949 0.077986;
   (2, 2, 1, 0, 1) 0.220935 0.393037 0.386028;
   (0, 0, 0, 1, 1) 0.553764 0.0206451 0.425591;
   (1, 0, 0, 1, 1) 0.540783 0.0781858 0.381032;
   (2, 0, 0, 1, 1) 0.213715 0.357185 0.4291;
   (0, 1, 0, 1, 1) 0.188606 0.314712 0.496682;
   (1, 1, 0, 1, 1) 0.404242 0.244777 0.350981;
   (2, 1, 0, 1, 1) 0.291097 0.386939 0.321964;
   (0, 2, 0, 1, 1) 0.226774 0.39037 0.382856;
   (1, 2, 0, 1, 1) 0.168167 0.481178 0.350655;
   (2, 2, 0, 1, 1) 0.266859 0.0698383 0.663303;
   (0, 0, 1, 1, 1) 0.311315 0.330662 0.358024;
   (1, 0, 1, 1, 1) 0.502006 0.250563 0.247431;
   (2, 0, 1, 1, 1) 0.352912 0.237263 0.409825;
   (0, 1, 1, 1, 1) 0.529908 0.352408 0.117684;
   (1, 1, 1, 1, 1) 0.457185 0.285686 0.25713;
   (2, 1, 1, 1, 1) 0.378625 0.246966 0.374409;
   (0, 2, 1, 1, 1) 0.0915542 0.315628 0.592818;
   (1, 2, 1, 1, 1) 0.0466022 0.394633 0.558765;
   (2, 2, 1, 1, 1) 0.546549 0.412597 0.040854;
   (0, 0, 0, 2, 1) 0.130468 0.453838 0.415694;
   (1, 0, 0, 2, 1) 0.365896 0.407107 0.226996;
   (2, 0, 0, 2, 1) 0.308905 0.383895 0.307201;
   (0, 1, 0, 2, 1) 0.738517 0.149853 0.11163;
   (1, 1, 0, 2, 1) 0.387331 0.0217338 0.590935;
   (2, 1, 0, 2, 1) 0.209692 0.400966 0.389342;
   (0, 2, 0, 2, 1) 0.509302 0.486922 0.0037759;
   (1, 2, 0, 2, 1) 0.317455 0.341668 0.340877;
   (2, 2, 0, 2, 1) 0.174666 0.298066 0.527267;
   (0, 0, 1, 2, 1) 0.256843 0.505049 0.238108;
   (1, 0, 1, 2, 1) 0.400833 0.41378 0.185387;
   (2, 0, 1, 2, 1) 0.346347 0.52508 0.128573;
   (0, 1, 1, 2, 1) 0.365666 0.453049 0.181285;
   (1, 1, 1, 2, 1) 0.353129 0.227172 0.419698;
   (2, 1, 1, 2, 1) 0.466225 0.242219 0.291556;
   (0, 2, 1, 2, 1) 0.451037 0.279027 0.269936;
   (1, 2, 1, 2, 1) 0.0215352 0.485619 0.492846;
   (2, 2, 1, 2, 1) 0.382796 0.331414 0.28579;
   (0, 0, 0, 0, 2) 0.0549152 0.145969 0.799115;
   (1, 0, 0, 0, 2) 0.397768 0.220643 0.381589;
   (2, 0, 0, 0, 2) 0.152741 0.444982 0.402278;
   (0, 1, 0, 0, 2) 0.311415 0.358601 0.329983;
   (1, 1, 0, 0, 2) 0.37969 0.153621 0.466689;
   (2, 1, 0, 0, 2) 0.331298 0.383006 0.285697;
   (0, 2, 0, 0, 2) 0.0095254 0.39581 0.594664;
   (1, 2, 0, 0, 2) 0.29214 0.076654 0.631206;
   (2, 2, 0, 0, 2) 0.360022 0.400862 0.239115;
   (0, 0, 1, 0, 2) 0.145563 0.483152 0.371286;
   (1, 0, 1, 0, 2) 0.47063 0.355553 0.173816;
   (2, 0, 1, 0, 2) 0.258458 0.159383 0.582159;
   (0, 1, 1, 0, 2) 0.468769 0.362355 0.168876;
   (1, 1, 1, 0, 2) 0.0949736 0.181553 0.723474;
   (2, 1, 1, 0, 2) 0.20846 0.0751529 0.716387;
   (0, 2, 1, 0, 2) 0.152605 0.46107 0.386324;
   (1, 2, 1, 0, 2) 0.44119 0.192867 0.365943;
   (2, 2, 1, 0, 2) 0.51293 0.0817899 0.40528;
   (0, 0, 0, 1, 2) 0.546677 0.250674 0.202649;
   (1, 0, 0, 1, 2) 0.422878 0.468235 0.108887;
   (2, 0, 0, 1, 2) 0.343343 0.543649 0.113008;
   (0, 1, 0, 1, 2) 0.140864 0.0964326 0.762704;
   (1, 1, 0, 1, 2) 0.521192 0.270108 0.2087;
   (2, 1, 0, 1, 2) 0.496877 0.470405 0.032718;
   (0, 2, 0, 1, 2) 0.878555 0.0035343 0.117911;
   (1, 2, 0, 1, 2) 0.202803 0.790278 0.00691927;
   (2, 2, 0, 1, 2) 0.366132 0.401528 0.23234;
   (0, 0, 1, 1, 2) 0.82925 0.0311906 0.139559;
   (1, 0, 1, 1, 2) 0.72601 0.0443432 0.229647;
   (2, 0, 1, 1, 2) 0.103617 0.733897 0.162486;
   (0, 1, 1, 1, 2) 0.278565 0.15605 0.565385;
   (1, 1, 1, 1, 2) 0.548257 0.109554 0.34219;
   (2, 1, 1, 1, 2) 0.0667314 0.492893 0.440375;
   (0, 2, 1, 1, 2) 0.186565 0.251252 0.562183;
   (1, 2, 1, 1, 2) 0.188205 0.492547 0.319248;
   (2, 2, 1, 1, 2) 0.256417 0.348691 0.394892;
   (0, 0, 0, 2, 2) 0.44299 0.125743 0.431267;
   (1, 0, 0, 2, 2) 0.3743 0.0460898 0.57961;
   (2, 0, 0, 2, 2) 0.161682 0.484013 0.354304;
   (0, 1, 0, 2, 2) 0.430688 0.498323 0.0709892;
   (1, 1, 0, 2, 2) 0.631628 0.0576929 0.310679;
   (2, 1, 0, 2, 2) 0.303093 0.474529 0.222378;
   (0, 2, 0, 2, 2) 0.350142 0.29282 0.357038;
   (1, 2, 0, 2, 2) 0.318332 0.00602533 0.675643;
   (2, 2, 0, 2, 2) 0.506866 0.15626 0.336873;
   (0, 0, 1, 2, 2) 0.254167 0.647842 0.0979915;
   (1, 0, 1, 2, 2) 0.60719 0.107029 0.28578;
   (2, 0, 1, 2, 2) 0.50755 0.269177 0.223273;
   (0, 1, 1, 2, 2) 0.214106 0.259533 0.526361;
   (1, 1, 1, 2, 2) 0.13977 0.382616 0.477614;
   (2, 1, 1, 2, 2) 0.204057 0.505455 0.290487;
   (0, 2, 1, 2, 2) 0.00885659 0.444021 0.547123;
   (1, 2, 1, 2, 2) 0.469726 0.224739 0.305535;
   (2, 2, 1, 2, 2) 0.232649 0.460611 0.30674;
}
probability (X09 | X06, X08) {
   (0, 0) 0.374079 0.172141 0.453781;
   (1, 0) 0.193877 0.412101 0.394022;
   (2, 0) 0.141442 0.113944 0.744614;
   (0, 1) 0.644294 0.0184415 0.337264;
   (1, 1) 0.697118 0.0170816 0.2858;
   (2, 1) 0.649409 0.206301 0.14429;
}
probability (X12 | X02, X09, X10) {
   (0, 0, 0) 0.173868 0.826132;
   (1, 0, 0) 0.361852 0.638148;
   (2, 0, 0) 0.753636 0.246364;
   (0, 1, 0) 0.170822 0.829178;
   (1, 1, 0) 0.267744 0.732256;
   (2, 1, 0) 0.76814 0.23186;
   (0, 2, 0) 0.250761 0.749239;
   (1, 2, 0) 0.420976 0.579024;
   (2, 2, 0) 0.47426 0.52574;
   (0, 0, 1) 0.489179 0.510821;
   (1, 0, 1) 0.654209 0.345791;
   (2, 0, 1) 0.884356 0.115644;
   (0, 1, 1) 0.397758 0.602242;
   (1, 1, 1) 0.835971 0.164029;
   (2, 1, 1) 0.481105 0.518895;
   (0, 2, 1) 0.686795 0.313205;
   (1, 2, 1) 0.336209 0.663791;
   (2, 2, 1) 0.657991 0.342009;
   (0, 0, 2) 0.363248 0.636752;
   (1, 0, 2) 0.560718 0.439282;
   (2, 0, 2) 0.253695 0.746305;
   (0, 1, 2) 0.289034 0.710966;
   (1, 1, 2) 0.374608 0.625392;
   (2, 1, 2) 0.662417 0.337583;
   (0, 2, 2) 0.670549 0.329451;
   (1, 2, 2) 0.499804 0.500196;
   (2, 2, 2) 0.16036 0.83964;
}
probability (X01 | X00) {
   (0) 0.630855 0.369145;
   (1) 0.302929 0.697071;
}

