network "unnamedBN" {
// written by aGrUM 1.7.1
}

variable X04 {
   type discrete[2] {0, 1};
}

variable X13 {
   type discrete[3] {0, 1, 2};
}

variable X08 {
   type discrete[2] {0, 1};
}

variable X15 {
   type discrete[2] {0, 1};
}

variable X02 {
   type discrete[3] {0, 1, 2};
}

variable X11 {
   type discrete[2] {0, 1};
}

variable X05 {
   type discrete[2] {0, 1};
}

variable X07 {
   type discrete[2] {0, 1};
}

variable X06 {
   type discrete[2] {0, 1};
}

variable X09 {
   type discrete[3] {0, 1, 2};
}

variable X10 {
   type discrete[2] {0, 1};
}

variable X01 {
   type discrete[2] {0, 1};
}

variable X00 {
   type discrete[2] {0, 1};
}

variable X16 {
   type discrete[2] {0, 1};
}

variable X03 {
   type discrete[2] {0, 1};
}

variable X12 {
   type discrete[3] {0, 1, 2};
}

variable X14 {
   type discrete[3] {0, 1, 2};
}

probability (X04) {
   default 0.754083 0.245917;
}
probability (X13 | X03, X11, X06, X12) {
   (0, 0, 0, 0) 0.203335 0.690371 0.106294;
   (1, 0, 0, 0) 0.35335 0.379257 0.267393;
   (0, 1, 0, 0) 0.344451 0.00606817 0.649481;
   (1, 1, 0, 0) 0.207293 0.270315 0.522392;
   (0, 0, 1, 0) 0.298152 0.442101 0.259748;
   (1, 0, 1, 0) 0.153295 0.503261 0.343444;
   (0, 1, 1, 0) 0.25533 0.317554 0.427116;
   (1, 1, 1, 0) 0.01856 0.592174 0.389266;
   (0, 0, 0, 1) 0.0171482 0.46454 0.518312;
   (1, 0, 0, 1) 0.404008 0.10489 0.491102;
   (0, 1, 0, 1) 0.519885 0.478078 0.00203775;
   (1, 1, 0, 1) 0.222313 0.256859 0.520828;
   (0, 0, 1, 1) 0.290826 0.49226 0.216914;
   (1, 0, 1, 1) 0.409801 0.0751518 0.515047;
   (0, 1, 1, 1) 0.11669 0.531131 0.352179;
   (1, 1, 1, 1) 0.408246 0.15472 0.437034;
   (0, 0, 0, 2) 0.0570947 0.497694 0.445211;
   (1, 0, 0, 2) 0.259466 0.406801 0.333733;
   (0, 1, 0, 2) 0.197704 0.172992 0.629303;
   (1, 1, 0, 2) 0.17241 0.581969 0.245621;
   (0, 0, 1, 2) 0.583891 0.0198885 0.396221;
   (1, 0, 1, 2) 0.289148 0.376837 0.334015;
   (0, 1, 1, 2) 0.0422081 0.171952 0.78584;
   (1, 1, 1, 2) 0.253304 0.50256 0.244136;
}
probability (X08 | X07) {
   (0) 0.503305 0.496695;
   (1) 0.123394 0.876606;
}
probability (X15 | X07) {
   (0) 0.670674 0.329326;
   (1) 0.642479 0.357521;
}
probability (X02) {
   default 0.406957 0.291913 0.30113;
}
probability (X11 | X10, X09) {
   (0, 0) 0.350554 0.649446;
   (1, 0) 0.739001 0.260999;
   (0, 1) 0.458054 0.541946;
   (1, 1) 0.58086 0.41914;
   (0, 2) 0.501937 0.498063;
   (1, 2) 0.714745 0.285255;
}
probability (X05 | X00, X04) {
   (0, 0) 0.470526 0.529474;
   (1, 0) 0.360241 0.639759;
   (0, 1) 0.0799755 0.920024;
   (1, 1) 0.561419 0.438581;
}
probability (X07 | X06) {
   (0) 0.510312 0.489688;
   (1) 0.535411 0.464589;
}
probability (X06 | X05, X03) {
   (0, 0) 0.333199 0.666801;
   (1, 0) 0.568388 0.431612;
   (0, 1) 0.314675 0.685325;
   (1, 1) 0.424599 0.575401;
}
probability (X09 | X07) {
   (0) 0.316523 0.437575 0.245902;
   (1) 0.28449 0.0674558 0.648054;
}
probability (X10 | X09) {
   (0) 0.217032 0.782968;
   (1) 0.026781 0.973219;
   (2) 0.440684 0.559316;
}
probability (X01 | X00) {
   (0) 0.363038 0.636962;
   (1) 0.35195 0.64805;
}
probability (X00) {
   default 0.524991 0.475009;
}
probability (X16 | X15, X03) {
   (0, 0) 0.519662 0.480338;
   (1, 0) 0.691872 0.308128;
   (0, 1) 0.810013 0.189987;
   (1, 1) 0.680241 0.319759;
}
probability (X03 | X00, X02) {
   (0, 0) 0.402981 0.597019;
   (1, 0) 0.482106 0.517894;
   (0, 1) 0.510624 0.489376;
   (1, 1) 0.487786 0.512214;
   (0, 2) 0.321395 0.678605;
   (1, 2) 0.258026 0.741974;
}
probability (X12 | X09, X05, X08) {
   (0, 0, 0) 0.239508 0.603157 0.157335;
   (1, 0, 0) 0.37104 0.226443 0.402517;
   (2, 0, 0) 0.339055 0.467794 0.193152;
   (0, 1, 0) 0.236893 0.198787 0.56432;
   (1, 1, 0) 0.419085 0.196244 0.384671;
   (2, 1, 0) 0.0884758 0.904297 0.0072268;
   (0, 0, 1) 0.459474 0.353808 0.186718;
   (1, 0, 1) 0.485885 0.451907 0.0622073;
   (2, 0, 1) 0.358294 0.51452 0.127187;
   (0, 1, 1) 0.684356 0.223779 0.0918653;
   (1, 1, 1) 0.176461 0.498056 0.325483;
   (2, 1, 1) 0.589377 0.364501 0.046122;
}
probability (X14 | X08, X09) {
   (0, 0) 0.378286 0.00554166 0.616172;
   (1, 0) 0.522871 0.231301 0.245828;
   (0, 1) 0.278445 0.570014 0.151541;
   (1, 1) 0.598951 0.159478 0.241571;
   (0, 2) 0.36966 0.327484 0.302855;
   (1, 2) 0.239785 0.347624 0.412591;
}

