network "unnamedBN" {
// written by aGrUM 1.7.1
}

variable X06 {
   type discrete[3] {0, 1, 2};
}

variable X05 {
   type discrete[3] {0, 1, 2};
}

variable X08 {
   type discrete[3] {0, 1, 2};
}

variable X07 {
   type discrete[3] {0, 1, 2};
}

variable X03 {
   type discrete[2] {0, 1};
}

variable X02 {
   type discrete[3] {0, 1, 2};
}

variable X09 {
   type discrete[2] {0, 1};
}

variable X04 {
   type discrete[3] {0, 1, 2};
}

variable X01 {
   type discrete[2] {0, 1};
}

variable X10 {
   type discrete[2] {0, 1};
}

variable X00 {
   type discrete[2] {0, 1};
}

probability (X06 | X05, X00) {
   (0, 0) 0.196521 0.404588 0.398891;
   (1, 0) 0.343364 0.286289 0.370347;
   (2, 0) 0.361985 0.311322 0.326693;
   (0, 1) 0.275054 0.389649 0.335297;
   (1, 1) 0.448025 0.480364 0.0716112;
   (2, 1) 0.514863 0.125188 0.359949;
}
probability (X05 | X03, X02, X04) {
   (0, 0, 0) 0.396373 0.201541 0.402085;
   (1, 0, 0) 0.236154 0.158008 0.605837;
   (0, 1, 0) 0.548203 0.369849 0.081948;
   (1, 1, 0) 0.417457 0.167414 0.415129;
   (0, 2, 0) 0.358954 0.338331 0.302715;
   (1, 2, 0) 0.109942 0.560464 0.329594;
   (0, 0, 1) 0.199528 0.590461 0.210011;
   (1, 0, 1) 0.139355 0.43066 0.429985;
   (0, 1, 1) 0.362647 0.159473 0.47788;
   (1, 1, 1) 0.116791 0.402765 0.480444;
   (0, 2, 1) 0.321114 0.416549 0.262336;
   (1, 2, 1) 0.312078 0.350825 0.337096;
   (0, 0, 2) 0.293467 0.268363 0.438171;
   (1, 0, 2) 0.33506 0.398921 0.266019;
   (0, 1, 2) 0.00557149 0.417717 0.576711;
   (1, 1, 2) 0.0689858 0.367005 0.564009;
   (0, 2, 2) 0.581814 0.374105 0.0440812;
   (1, 2, 2) 0.230248 0.23855 0.531202;
}
probability (X08 | X03, X07) {
   (0, 0) 0.0979162 0.420054 0.48203;
   (1, 0) 0.326474 0.373977 0.299549;
   (0, 1) 0.348391 0.241848 0.40976;
   (1, 1) 0.245 0.321451 0.433549;
   (0, 2) 0.261714 0.388345 0.349941;
   (1, 2) 0.34024 0.337368 0.322392;
}
probability (X07 | X05, X02) {
   (0, 0) 0.287513 0.576814 0.135673;
   (1, 0) 0.558992 0.34831 0.0926976;
   (2, 0) 0.253594 0.371609 0.374797;
   (0, 1) 0.535228 0.0557014 0.40907;
   (1, 1) 0.253918 0.391474 0.354608;
   (2, 1) 0.197497 0.778269 0.0242336;
   (0, 2) 0.463366 0.191985 0.34465;
   (1, 2) 0.455232 0.102401 0.442366;
   (2, 2) 0.476715 0.32652 0.196765;
}
probability (X03) {
   default 0.331114 0.668886;
}
probability (X02) {
   default 0.408106 0.538886 0.0530084;
}
probability (X09 | X01, X03) {
   (0, 0) 0.519779 0.480221;
   (1, 0) 0.463805 0.536195;
   (0, 1) 0.225932 0.774068;
   (1, 1) 0.532668 0.467332;
}
probability (X04 | X01, X03) {
   (0, 0) 0.526377 0.240648 0.232976;
   (1, 0) 0.207941 0.306937 0.485122;
   (0, 1) 0.745317 0.204758 0.0499251;
   (1, 1) 0.647692 0.31826 0.0340475;
}
probability (X01 | X00) {
   (0) 0.500989 0.499011;
   (1) 0.642466 0.357534;
}
probability (X10 | X09, X07) {
   (0, 0) 0.441105 0.558895;
   (1, 0) 0.183532 0.816468;
   (0, 1) 0.350304 0.649696;
   (1, 1) 0.408204 0.591796;
   (0, 2) 0.322313 0.677687;
   (1, 2) 0.531307 0.468693;
}
probability (X00) {
   default 0.647342 0.352658;
}

