network "unnamedBN" {
// written by aGrUM 1.7.1
}

variable X01 {
   type discrete[2] {0, 1};
}

variable X07 {
   type discrete[3] {0, 1, 2};
}

variable X04 {
   type discrete[2] {0, 1};
}

variable X10 {
   type discrete[2] {0, 1};
}

variable X02 {
   type discrete[2] {0, 1};
}

variable X05 {
   type discrete[3] {0, 1, 2};
}

variable X00 {
   type discrete[3] {0, 1, 2};
}

variable X06 {
   type discrete[2] {0, 1};
}

variable X03 {
   type discrete[3] {0, 1, 2};
}

variable X08 {
   type discrete[3] {0, 1, 2};
}

variable X11 {
   type discrete[3] {0, 1, 2};
}

variable X09 {
   type discrete[2] {0, 1};
}

probability (X01 | X00) {
   (0) 0.737203 0.262797;
   (1) 0.475413 0.524587;
   (2) 0.506333 0.493667;
}
probability (X07 | X00, X06) {
   (0, 0) 0.429417 0.106927 0.463656;
   (1, 0) 0.385698 0.595729 0.0185739;
   (2, 0) 0.222332 0.0169931 0.760675;
   (0, 1) 0.269202 0.351502 0.379295;
   (1, 1) 0.458351 0.144059 0.39759;
   (2, 1) 0.473716 0.361322 0.164962;
}
probability (X04 | X00, X03) {
   (0, 0) 0.945411 0.0545887;
   (1, 0) 0.019368 0.980632;
   (2, 0) 0.000527587 0.999472;
   (0, 1) 0.457949 0.542051;
   (1, 1) 0.267868 0.732132;
   (2, 1) 0.082698 0.917302;
   (0, 2) 0.667694 0.332306;
   (1, 2) 0.521538 0.478462;
   (2, 2) 0.582311 0.417689;
}
probability (X10 | X06, X02, X04) {
   (0, 0, 0) 0.93607 0.0639297;
   (1, 0, 0) 0.549456 0.450544;
   (0, 1, 0) 0.0231041 0.976896;
   (1, 1, 0) 0.580656 0.419344;
   (0, 0, 1) 0.627031 0.372969;
   (1, 0, 1) 0.739476 0.260524;
   (0, 1, 1) 0.521248 0.478752;
   (1, 1, 1) 0.892888 0.107112;
}
probability (X02 | X00) {
   (0) 0.270171 0.729829;
   (1) 0.0574007 0.942599;
   (2) 0.736122 0.263878;
}
probability (X05 | X04, X00) {
   (0, 0) 0.35315 0.522975 0.123876;
   (1, 0) 0.412658 0.391783 0.195559;
   (0, 1) 0.269265 0.232353 0.498382;
   (1, 1) 0.0929004 0.579817 0.327282;
   (0, 2) 0.0679042 0.733975 0.198121;
   (1, 2) 0.489614 0.0301884 0.480198;
}
probability (X00) {
   default 0.026887 0.647944 0.325169;
}
probability (X06 | X04) {
   (0) 0.160995 0.839005;
   (1) 0.603283 0.396717;
}
probability (X03 | X02) {
   (0) 0.721856 0.00182695 0.276317;
   (1) 0.644099 0.290128 0.065773;
}
probability (X08 | X07, X06) {
   (0, 0) 0.000352216 0.823177 0.176471;
   (1, 0) 0.952908 0.00190721 0.0451852;
   (2, 0) 0.048746 0.779301 0.171953;
   (0, 1) 0.318374 0.329649 0.351977;
   (1, 1) 0.36934 0.171195 0.459465;
   (2, 1) 0.394838 0.424611 0.180552;
}
probability (X11 | X03, X00) {
   (0, 0) 0.161534 0.521235 0.317231;
   (1, 0) 0.401483 0.48094 0.117578;
   (2, 0) 0.146845 0.215093 0.638062;
   (0, 1) 0.309554 0.403271 0.287175;
   (1, 1) 0.254632 0.464071 0.281297;
   (2, 1) 0.320118 0.348509 0.331373;
   (0, 2) 0.515912 0.431773 0.0523153;
   (1, 2) 0.0432189 0.727642 0.229139;
   (2, 2) 0.329076 0.247303 0.423622;
}
probability (X09 | X08) {
   (0) 0.806012 0.193988;
   (1) 0.646128 0.353872;
   (2) 0.665583 0.334417;
}

